<?xml version="1.0"?>
<opencv_storage>
<stage7>
  <maxWeakCount>9</maxWeakCount>
  <stageThreshold>-1.2245469093322754e+00</stageThreshold>
  <weakClassifiers>
    <_>
      <internalNodes>
        0 -1 80582 2.5879299268126488e-02</internalNodes>
      <leafValues>
        -6.1637932062149048e-01 1.9354838132858276e-01</leafValues></_>
    <_>
      <internalNodes>
        0 -1 28824 -4.8594880849123001e-02</internalNodes>
      <leafValues>
        4.4653847813606262e-01 -3.5140037536621094e-01</leafValues></_>
    <_>
      <internalNodes>
        0 -1 158556 -3.9937742985785007e-03</internalNodes>
      <leafValues>
        5.8260464668273926e-01 -2.2775509953498840e-01</leafValues></_>
    <_>
      <internalNodes>
        0 -1 156794 -1.5410196501761675e-03</internalNodes>
      <leafValues>
        6.3841366767883301e-01 -2.2188934683799744e-01</leafValues></_>
    <_>
      <internalNodes>
        0 -1 98368 4.2075272649526596e-02</internalNodes>
      <leafValues>
        -3.9214959740638733e-01 3.6408105492591858e-01</leafValues></_>
    <_>
      <internalNodes>
        0 -1 52742 -9.0570241212844849e-02</internalNodes>
      <leafValues>
        3.9180818200111389e-01 -4.8725363612174988e-01</leafValues></_>
    <_>
      <internalNodes>
        0 -1 146846 -1.6644904462737031e-05</internalNodes>
      <leafValues>
        3.9696010947227478e-01 -3.8927683234214783e-01</leafValues></_>
    <_>
      <internalNodes>
        0 -1 52825 1.6624019481241703e-03</internalNodes>
      <leafValues>
        -1.9560901820659637e-01 6.9143146276473999e-01</leafValues></_>
    <_>
      <internalNodes>
        0 -1 95 3.8360096514225006e-03</internalNodes>
      <leafValues>
        2.2802633047103882e-01 -6.9522905349731445e-01</leafValues></_></weakClassifiers></stage7>
</opencv_storage>
