<?xml version="1.0"?>
<opencv_storage>
<stage5>
  <maxWeakCount>10</maxWeakCount>
  <stageThreshold>-1.2946594953536987e+00</stageThreshold>
  <weakClassifiers>
    <_>
      <internalNodes>
        0 -1 10325 -3.5376849770545959e-01</internalNodes>
      <leafValues>
        4.6052631735801697e-01 -6.4257025718688965e-01</leafValues></_>
    <_>
      <internalNodes>
        0 -1 90404 -9.4941079616546631e-02</internalNodes>
      <leafValues>
        4.1419532895088196e-01 -4.5954287052154541e-01</leafValues></_>
    <_>
      <internalNodes>
        0 -1 140175 -1.7296670004725456e-02</internalNodes>
      <leafValues>
        4.1957131028175354e-01 -3.5952889919281006e-01</leafValues></_>
    <_>
      <internalNodes>
        0 -1 103355 -1.7415421083569527e-02</internalNodes>
      <leafValues>
        -6.2632673978805542e-01 2.4535523355007172e-01</leafValues></_>
    <_>
      <internalNodes>
        0 -1 159637 -5.7915206998586655e-03</internalNodes>
      <leafValues>
        -8.2192140817642212e-01 2.0655947923660278e-01</leafValues></_>
    <_>
      <internalNodes>
        0 -1 155138 -3.7751882337033749e-04</internalNodes>
      <leafValues>
        4.9869966506958008e-01 -3.3392453193664551e-01</leafValues></_>
    <_>
      <internalNodes>
        0 -1 15419 -4.9837403930723667e-03</internalNodes>
      <leafValues>
        6.0960018634796143e-01 -2.3284566402435303e-01</leafValues></_>
    <_>
      <internalNodes>
        0 -1 47843 -1.4409907635126729e-05</internalNodes>
      <leafValues>
        4.4316673278808594e-01 -3.1463804841041565e-01</leafValues></_>
    <_>
      <internalNodes>
        0 -1 78044 -1.2174589186906815e-01</internalNodes>
      <leafValues>
        4.2094090580940247e-01 -3.8274753093719482e-01</leafValues></_>
    <_>
      <internalNodes>
        0 -1 161157 -2.1529668010771275e-03</internalNodes>
      <leafValues>
        -6.5231931209564209e-01 2.5907278060913086e-01</leafValues></_></weakClassifiers></stage5>
</opencv_storage>
