<?xml version="1.0"?>
<opencv_storage>
<stage0>
  <maxWeakCount>6</maxWeakCount>
  <stageThreshold>-1.5500860214233398e+00</stageThreshold>
  <weakClassifiers>
    <_>
      <internalNodes>
        0 -1 28004 -6.2466166913509369e-02</internalNodes>
      <leafValues>
        6.4705884456634521e-01 -8.0129587650299072e-01</leafValues></_>
    <_>
      <internalNodes>
        0 -1 63463 -1.5281048417091370e-01</internalNodes>
      <leafValues>
        7.1231931447982788e-01 -6.5020406246185303e-01</leafValues></_>
    <_>
      <internalNodes>
        0 -1 138961 1.5203014016151428e-02</internalNodes>
      <leafValues>
        -5.6189185380935669e-01 7.1829950809478760e-01</leafValues></_>
    <_>
      <internalNodes>
        0 -1 3287 -1.0125840082764626e-02</internalNodes>
      <leafValues>
        5.8876109123229980e-01 -4.9437758326530457e-01</leafValues></_>
    <_>
      <internalNodes>
        0 -1 13085 -1.5807280316948891e-02</internalNodes>
      <leafValues>
        4.8972159624099731e-01 -6.3959652185440063e-01</leafValues></_>
    <_>
      <internalNodes>
        0 -1 108324 -2.1931305527687073e-02</internalNodes>
      <leafValues>
        5.1414114236831665e-01 -5.7970964908599854e-01</leafValues></_></weakClassifiers></stage0>
</opencv_storage>
