<?xml version="1.0"?>
<opencv_storage>
<stage10>
  <maxWeakCount>9</maxWeakCount>
  <stageThreshold>-1.2914905548095703e+00</stageThreshold>
  <weakClassifiers>
    <_>
      <internalNodes>
        0 -1 153134 -1.0675641242414713e-03</internalNodes>
      <leafValues>
        4.1463413834571838e-01 -5.0000000000000000e-01</leafValues></_>
    <_>
      <internalNodes>
        0 -1 128027 1.3789858203381300e-03</internalNodes>
      <leafValues>
        -4.2442545294761658e-01 2.7152618765830994e-01</leafValues></_>
    <_>
      <internalNodes>
        0 -1 36035 -4.1906116530299187e-03</internalNodes>
      <leafValues>
        1.5744680166244507e-01 -6.7634224891662598e-01</leafValues></_>
    <_>
      <internalNodes>
        0 -1 50463 -4.5992862433195114e-03</internalNodes>
      <leafValues>
        4.5274415612220764e-01 -2.4955677986145020e-01</leafValues></_>
    <_>
      <internalNodes>
        0 -1 12820 -9.2382525326684117e-04</internalNodes>
      <leafValues>
        -7.9802352190017700e-01 1.4666329324245453e-01</leafValues></_>
    <_>
      <internalNodes>
        0 -1 141948 -5.4447038564831018e-04</internalNodes>
      <leafValues>
        3.8357532024383545e-01 -3.4710493683815002e-01</leafValues></_>
    <_>
      <internalNodes>
        0 -1 150465 -7.5398818589746952e-03</internalNodes>
      <leafValues>
        -7.3628115653991699e-01 1.5841640532016754e-01</leafValues></_>
    <_>
      <internalNodes>
        0 -1 161580 -2.0993717014789581e-02</internalNodes>
      <leafValues>
        -6.9514077901840210e-01 1.3501241803169250e-01</leafValues></_>
    <_>
      <internalNodes>
        0 -1 33211 5.7531613856554031e-04</internalNodes>
      <leafValues>
        -2.6846933364868164e-01 4.3962743878364563e-01</leafValues></_></weakClassifiers></stage10>
</opencv_storage>
