<?xml version="1.0"?>
<opencv_storage>
<stage8>
  <maxWeakCount>9</maxWeakCount>
  <stageThreshold>-1.2339444160461426e+00</stageThreshold>
  <weakClassifiers>
    <_>
      <internalNodes>
        0 -1 144890 5.6709568947553635e-02</internalNodes>
      <leafValues>
        -6.1099368333816528e-01 2.2033898532390594e-01</leafValues></_>
    <_>
      <internalNodes>
        0 -1 35099 -7.5042933225631714e-02</internalNodes>
      <leafValues>
        3.4672352671623230e-01 -4.5461416244506836e-01</leafValues></_>
    <_>
      <internalNodes>
        0 -1 157339 1.4812927474849857e-05</internalNodes>
      <leafValues>
        -3.0941015481948853e-01 4.0763050317764282e-01</leafValues></_>
    <_>
      <internalNodes>
        0 -1 108030 -1.6194504496525042e-05</internalNodes>
      <leafValues>
        3.4399330615997314e-01 -3.9551475644111633e-01</leafValues></_>
    <_>
      <internalNodes>
        0 -1 89996 -7.3538171127438545e-03</internalNodes>
      <leafValues>
        -6.0084968805313110e-01 2.3985514044761658e-01</leafValues></_>
    <_>
      <internalNodes>
        0 -1 128157 5.1003112457692623e-03</internalNodes>
      <leafValues>
        -4.4118988513946533e-01 3.3506509661674500e-01</leafValues></_>
    <_>
      <internalNodes>
        0 -1 25815 2.4844051804393530e-03</internalNodes>
      <leafValues>
        1.5527473390102386e-01 -7.8806775808334351e-01</leafValues></_>
    <_>
      <internalNodes>
        0 -1 136815 -1.2293494073674083e-03</internalNodes>
      <leafValues>
        4.0210378170013428e-01 -3.3853262662887573e-01</leafValues></_>
    <_>
      <internalNodes>
        0 -1 151668 1.8067137716570869e-05</internalNodes>
      <leafValues>
        -6.2079316377639771e-01 2.2516167163848877e-01</leafValues></_></weakClassifiers></stage8>
</opencv_storage>
